{"learner":{"attributes":{"best_iteration":"49","best_score":"15.914882717062753","scikit_learn":"{\"_estimator_type\": \"regressor\"}"},"feature_names":["NOx (ppb)","NH3 (ug/m3)","SO2 (ug/m3)","CO (mg/m3)","Ozone (ug/m3)","Benzene (ug/m3)","Toluene (ug/m3)","Temp (degree C)","RH (%)","WS (m/s)","SR (W/mt2)","BP (mmHg)","VWS (m/s)","Xylene (ug/m3)","RF (mm)","AT (degree C)","WD (degree)","hour","dayofmonth","dayofweek","dayofyear","weekofyear","month","quarter","year"],"feature_types":["float","float","float","float","float","float","float","float","float","float","float","float","float","float","float","float","float","int","int","int","int","int","int","int","int"],"gradient_booster":{"model":{"gbtree_model_param":{"num_parallel_tree":"1","num_trees":"50"},"iteration_indptr":[0,1,2,3,4,5,6,7,8,9,10,11,12,13,14,15,16,17,18,19,20,21,22,23,24,25,26,27,28,29,30,31,32,33,34,35,36,37,38,39,40,41,42,43,44,45,46,47,48,49,50],"tree_info":[0,0,0,0,0,0,0,0,0,0,0,0,0,0,0,0,0,0,0,0,0,0,0,0,0,0,0,0,0,0,0,0,0,0,0,0,0,0,0,0,0,0,0,0,0,0,0,0,0,0],"trees":[{"base_weights":[2.9834139E-6,-8.298357E0,1.7572582E1,-1.745654E1,-1.2662016E0,7.7405205E0,3.280908E1,-5.824777E0,2.5610247E-1,-2.2753415E0,1.5265595E0,9.1259164E-1,8.002138E0,6.4791536E0,1.2816469E1],"categories":[],"categories_nodes":[],"categories_segments":[],"categories_sizes":[],"default_left":[0,0,0,0,0,0,0,0,0,0,0,0,0,0,0],"id":0,"left_children":[1,3,5,7,9,11,13,-1,-1,-1,-1,-1,-1,-1,-1],"loss_changes":[6.900664E6,2.0700438E6,2.273654E6,8.39126E5,8.3210094E5,8.595667E5,7.420695E5,0E0,0E0,0E0,0E0,0E0,0E0,0E0,0E0],"parents":[2147483647,0,0,1,1,2,2,3,3,4,4,5,5,6,6],"right_children":[2,4,6,8,10,12,14,-1,-1,-1,-1,-1,-1,-1,-1],"split_conditions":[7.2E-1,9.8E-1,1.27E1,4.0168E1,2.1276241E1,3.27E2,2.8525602E1,-5.824777E0,2.5610247E-1,-2.2753415E0,1.5265595E0,9.1259164E-1,8.002138E0,6.4791536E0,1.2816469E1],"split_indices":[3,5,1,4,0,20,0,0,0,0,0,0,0,0,0],"split_type":[0,0,0,0,0,0,0,0,0,0,0,0,0,0,0],"sum_hessian":[4.732E4,3.2142E4,1.5178E4,1.396E4,1.8182E4,9.226E3,5.952E3,1.1849E4,2.111E3,9.002E3,9.18E3,7.584E3,1.642E3,3.38E3,2.572E3],"tree_param":{"num_deleted":"0","num_feature":"25","num_nodes":"15","size_leaf_vector":"1"}},{"base_weights":[4.656116E-4,-7.6735225E0,1.2777481E1,-1.2957482E1,1.9573838E0,4.8843193E0,2.4207907E1,-4.269495E0,-9.920861E-1,-6.879045E-1,4.1509004E0,-6.636234E-1,4.403914E0,4.504797E0,9.189883E0],"categories":[],"categories_nodes":[],"categories_segments":[],"categories_sizes":[],"default_left":[0,0,0,0,0,0,0,0,0,0,0,0,0,0,0],"id":1,"left_children":[1,3,5,7,9,11,13,-1,-1,-1,-1,-1,-1,-1,-1],"loss_changes":[4.6399535E6,1.5045681E6,1.6019572E6,4.024395E5,5.913873E5,8.212056E5,5.033485E5,0E0,0E0,0E0,0E0,0E0,0E0,0E0,0E0],"parents":[2147483647,0,0,1,1,2,2,3,3,4,4,5,5,6,6],"right_children":[2,4,6,8,10,12,14,-1,-1,-1,-1,-1,-1,-1,-1],"split_conditions":[1.1396E1,1.3E0,2.4024431E1,3.484152E1,2.98E2,3.8377907E1,2.8415E1,-4.269495E0,-9.920861E-1,-6.879045E-1,4.1509004E0,-6.636234E-1,4.403914E0,4.504797E0,9.189883E0],"split_indices":[1,5,0,4,20,4,4,0,0,0,0,0,0,0,0],"split_type":[0,0,0,0,0,0,0,0,0,0,0,0,0,0,0],"sum_hessian":[4.732E4,2.9564E4,1.7756E4,1.909E4,1.0474E4,1.0504E4,7.252E3,1.5429E4,3.661E3,7.795E3,2.679E3,6.284E3,4.22E3,3.697E3,3.555E3],"tree_param":{"num_deleted":"0","num_feature":"25","num_nodes":"15","size_leaf_vector":"1"}},{"base_weights":[6.6402135E-4,-4.1009793E0,1.40102415E1,-7.082959E0,5.840263E0,2.6957085E0,1.9550749E1,-3.8137112E0,-1.0828211E0,-6.2564456E-1,2.846329E0,2.7857354E0,-1.13654E0,1.7870919E0,6.4267273E0],"categories":[],"categories_nodes":[],"categories_segments":[],"categories_sizes":[],"default_left":[0,0,0,0,0,0,0,0,0,0,0,0,0,0,0],"id":2,"left_children":[1,3,5,7,9,11,13,-1,-1,-1,-1,-1,-1,-1,-1],"loss_changes":[2.7192305E6,1.0851815E6,6.71777E5,5.900515E5,2.92276E5,1.7148744E5,3.1492525E5,0E0,0E0,0E0,0E0,0E0,0E0,0E0,0E0],"parents":[2147483647,0,0,1,1,2,2,3,3,4,4,5,5,6,6],"right_children":[2,4,6,8,10,12,14,-1,-1,-1,-1,-1,-1,-1,-1],"split_conditions":[7.752845E-1,1.2156688E1,7.6125165E2,1.585424E1,7.6045166E2,7.033808E1,1.01675E1,-3.8137112E0,-1.0828211E0,-6.2564456E-1,2.846329E0,2.7857354E0,-1.13654E0,1.7870919E0,6.4267273E0],"split_indices":[3,1,11,0,11,8,1,0,0,0,0,0,0,0,0],"split_type":[0,0,0,0,0,0,0,0,0,0,0,0,0,0,0],"sum_hessian":[4.732E4,3.6604E4,1.0716E4,2.8158E4,8.446E3,3.523E3,7.193E3,9.356E3,1.8802E4,2.932E3,5.514E3,1.701E3,1.822E3,1.447E3,5.746E3],"tree_param":{"num_deleted":"0","num_feature":"25","num_nodes":"15","size_leaf_vector":"1"}},{"base_weights":[6.304548E-4,-5.3063254E0,6.101677E0,-9.404502E0,4.748041E-2,-8.0850244E-1,1.1572184E1,-1.0157499E0,-3.4194615E0,-1.0075644E0,3.7461202E0,-1.6764742E0,1.0630481E0,1.6307198E0,5.167637E0],"categories":[],"categories_nodes":[],"categories_segments":[],"categories_sizes":[],"default_left":[0,0,0,0,0,0,0,0,0,0,0,0,0,0,0],"id":3,"left_children":[1,3,5,7,9,11,13,-1,-1,-1,-1,-1,-1,-1,-1],"loss_changes":[1.5321908E6,5.5527925E5,8.321868E5,2.2938975E5,5.2967525E5,2.3039703E5,4.8316962E5,0E0,0E0,0E0,0E0,0E0,0E0,0E0,0E0],"parents":[2147483647,0,0,1,1,2,2,3,3,4,4,5,5,6,6],"right_children":[2,4,6,8,10,12,14,-1,-1,-1,-1,-1,-1,-1,-1],"split_conditions":[1.067E1,1.1329895E0,7.6133234E2,1.53E2,7.929046E2,2.6717907E1,1.034077E1,-1.0157499E0,-3.4194615E0,-1.0075644E0,3.7461202E0,-1.6764742E0,1.0630481E0,1.6307198E0,5.167637E0],"split_indices":[1,5,11,20,11,4,2,0,0,0,0,0,0,0,0],"split_type":[0,0,0,0,0,0,0,0,0,0,0,0,0,0,0],"sum_hessian":[4.732E4,2.5307E4,2.2013E4,1.4334E4,1.0973E4,9.727E3,1.2286E4,4.633E3,9.701E3,8.617E3,2.356E3,4.581E3,5.146E3,6.656E3,5.63E3],"tree_param":{"num_deleted":"0","num_feature":"25","num_nodes":"15","size_leaf_vector":"1"}},{"base_weights":[5.471458E-4,-1.9837712E0,1.2090257E1,-3.3136756E0,1.0446551E1,7.346311E0,1.9578339E1,-1.4834621E0,1.2796156E0,1.4997966E0,4.00504E0,2.5810647E-1,4.2537227E0,3.9640284E0,7.691523E0],"categories":[],"categories_nodes":[],"categories_segments":[],"categories_sizes":[],"default_left":[0,0,0,0,0,0,0,0,0,0,0,0,0,0,0],"id":4,"left_children":[1,3,5,7,9,11,13,-1,-1,-1,-1,-1,-1,-1,-1],"loss_changes":[1.1352468E6,6.720255E5,2.3686612E5,5.6788925E5,7.633097E4,2.0462122E5,1.0993044E5,0E0,0E0,0E0,0E0,0E0,0E0,0E0,0E0],"parents":[2147483647,0,0,1,1,2,2,3,3,4,4,5,5,6,6],"right_children":[2,4,6,8,10,12,14,-1,-1,-1,-1,-1,-1,-1,-1],"split_conditions":[8.482055E-1,4.9634E1,3.082E1,1.6E0,1.7978228E1,3.5073906E1,3.0028881E1,-1.4834621E0,1.2796156E0,1.4997966E0,4.00504E0,2.5810647E-1,4.2537227E0,3.9640284E0,7.691523E0],"split_indices":[3,4,0,5,0,4,4,0,0,0,0,0,0,0,0],"split_type":[0,0,0,0,0,0,0,0,0,0,0,0,0,0,0],"sum_hessian":[4.732E4,4.0649E4,6.671E3,3.6721E4,3.928E3,4.085E3,2.586E3,2.9381E4,7.34E3,1.678E3,2.25E3,2.239E3,1.846E3,1.521E3,1.065E3],"tree_param":{"num_deleted":"0","num_feature":"25","num_nodes":"15","size_leaf_vector":"1"}},{"base_weights":[8.464012E-4,-5.034828E0,3.3435626E0,-9.1106E0,-1.2010747E0,-6.158402E0,5.4457645E0,-1.5167127E0,-3.1885734E0,-2.2308576E0,8.874219E-2,-3.898161E0,-3.554219E-1,2.1508803E0,-9.249505E-1],"categories":[],"categories_nodes":[],"categories_segments":[],"categories_sizes":[],"default_left":[0,0,0,0,0,0,0,0,0,0,0,0,0,0,0],"id":5,"left_children":[1,3,5,7,9,11,13,-1,-1,-1,-1,-1,-1,-1,-1],"loss_changes":[7.965632E5,2.949986E5,5.681638E5,7.593531E4,9.944932E4,1.9450392E5,4.4946525E5,0E0,0E0,0E0,0E0,0E0,0E0,0E0,0E0],"parents":[2147483647,0,0,1,1,2,2,3,3,4,4,5,5,6,6],"right_children":[2,4,6,8,10,12,14,-1,-1,-1,-1,-1,-1,-1,-1],"split_conditions":[1.860024E1,2.7845907E1,4.7771463E-1,2.7E1,7.9886394E0,2.017E3,2.2044813E-2,-1.5167127E0,-3.1885734E0,-2.2308576E0,8.874219E-2,-3.898161E0,-3.554219E-1,2.1508803E0,-9.249505E-1],"split_indices":[0,4,3,21,1,24,14,0,0,0,0,0,0,0,0],"split_type":[0,0,0,0,0,0,0,0,0,0,0,0,0,0,0],"sum_hessian":[4.732E4,1.8879E4,2.8441E4,9.15E3,9.729E3,5.152E3,2.3289E4,3.441E3,5.709E3,1.787E3,7.942E3,1.999E3,3.153E3,1.859E4,4.699E3],"tree_param":{"num_deleted":"0","num_feature":"25","num_nodes":"15","size_leaf_vector":"1"}},{"base_weights":[4.0001035E-4,-1.4124436E0,8.629398E0,-2.4874783E0,7.367728E0,1.9243788E1,6.348887E0,3.6631143E-1,-1.2655375E0,1.7775663E0,8.012802E0,7.2834234E0,2.2828803E0,1.2683119E0,4.9866524E0],"categories":[],"categories_nodes":[],"categories_segments":[],"categories_sizes":[],"default_left":[0,0,0,0,0,0,0,0,0,0,0,0,0,0,0],"id":6,"left_children":[1,3,5,7,9,11,13,-1,-1,-1,-1,-1,-1,-1,-1],"loss_changes":[5.769226E5,3.8384538E5,1.6104297E5,2.7692675E5,9.755806E4,8.716209E4,1.14589875E5,0E0,0E0,0E0,0E0,0E0,0E0,0E0,0E0],"parents":[2147483647,0,0,1,1,2,2,3,3,4,4,5,5,6,6],"right_children":[2,4,6,8,10,12,14,-1,-1,-1,-1,-1,-1,-1,-1],"split_conditions":[1.4084688E1,1.223E1,2.3E1,1.53E2,5.2E1,4.286503E-3,3.39E2,3.6631143E-1,-1.2655375E0,1.7775663E0,8.012802E0,7.2834234E0,2.2828803E0,1.2683119E0,4.9866524E0],"split_indices":[1,2,20,20,21,14,20,0,0,0,0,0,0,0,0],"split_type":[0,0,0,0,0,0,0,0,0,0,0,0,0,0,0],"sum_hessian":[4.732E4,4.0663E4,6.657E3,3.6228E4,4.435E3,1.176E3,5.481E3,1.2578E4,2.365E4,4.228E3,2.07E2,7.34E2,4.42E2,4.722E3,7.59E2],"tree_param":{"num_deleted":"0","num_feature":"25","num_nodes":"15","size_leaf_vector":"1"}},{"base_weights":[8.1110134E-4,-2.658127E0,3.1118674E0,-6.0621324E0,2.6111577E-3,-3.5538251E0,5.2924695E0,-3.188451E0,-1.3553542E0,1.454424E0,-4.738226E-1,1.3303833E0,-1.6173751E0,4.1316004E0,1.0022576E0],"categories":[],"categories_nodes":[],"categories_segments":[],"categories_sizes":[],"default_left":[0,0,0,0,0,0,0,0,0,0,0,0,0,0,0],"id":7,"left_children":[1,3,5,7,9,11,13,-1,-1,-1,-1,-1,-1,-1,-1],"loss_changes":[3.9145262E5,2.3109366E5,3.1698838E5,7.3228875E4,1.2513566E5,9.814174E4,2.668075E5,0E0,0E0,0E0,0E0,0E0,0E0,0E0,0E0],"parents":[2147483647,0,0,1,1,2,2,3,3,4,4,5,5,6,6],"right_children":[2,4,6,8,10,12,14,-1,-1,-1,-1,-1,-1,-1,-1],"split_conditions":[2.1762241E1,2.6248E1,5.1104796E-1,1.5889907E1,1.8524333E0,5.8E1,2.187E1,-3.188451E0,-1.3553542E0,1.454424E0,-4.738226E-1,1.3303833E0,-1.6173751E0,4.1316004E0,1.0022576E0],"split_indices":[0,4,3,4,9,8,15,0,0,0,0,0,0,0,0],"split_type":[0,0,0,0,0,0,0,0,0,0,0,0,0,0,0],"sum_hessian":[4.732E4,2.5514E4,2.1806E4,1.1193E4,1.4321E4,5.375E3,1.6431E4,2.124E3,9.069E3,3.524E3,1.0797E4,1.128E3,4.247E3,2.545E3,1.3886E4],"tree_param":{"num_deleted":"0","num_feature":"25","num_nodes":"15","size_leaf_vector":"1"}},{"base_weights":[6.1047234E-4,9.806942E-1,-7.4229155E0,-3.6647186E-1,6.5046782E0,-8.731713E0,3.0467706E0,7.5751096E-1,-1.0770545E0,3.5486445E0,1.0714767E0,-1.9439788E0,-4.184619E0,-1.8703916E0,2.7721632E0],"categories":[],"categories_nodes":[],"categories_segments":[],"categories_sizes":[],"default_left":[0,0,0,0,0,0,0,0,0,0,0,0,0,0,0],"id":8,"left_children":[1,3,5,7,9,11,13,-1,-1,-1,-1,-1,-1,-1,-1],"loss_changes":[3.4429956E5,3.1108875E5,7.565184E4,3.56764E5,1.3504803E5,5.4708406E4,4.068819E4,0E0,0E0,0E0,0E0,0E0,0E0,0E0,0E0],"parents":[2147483647,0,0,1,1,2,2,3,3,4,4,5,5,6,6],"right_children":[2,4,6,8,10,12,14,-1,-1,-1,-1,-1,-1,-1,-1],"split_conditions":[5E-2,2.93E2,4.892E1,1.53E2,3.206485E1,8.0802E1,1.5217584E2,7.5751096E-1,-1.0770545E0,3.5486445E0,1.0714767E0,-1.9439788E0,-4.184619E0,-1.8703916E0,2.7721632E0],"split_indices":[14,20,0,20,10,8,16,0,0,0,0,0,0,0,0],"split_type":[0,0,0,0,0,0,0,0,0,0,0,0,0,0,0],"sum_hessian":[4.732E4,4.1802E4,5.518E3,3.3607E4,8.195E3,4.905E3,6.13E2,1.7844E4,1.5763E4,2.501E3,5.694E3,3.791E3,1.114E3,2.53E2,3.6E2],"tree_param":{"num_deleted":"0","num_feature":"25","num_nodes":"15","size_leaf_vector":"1"}},{"base_weights":[4.198572E-4,-9.287832E-1,6.0608444E0,-1.8717073E0,4.9545083E0,3.655215E0,1.271519E1,5.5852234E-2,-9.994332E-1,3.1335232E0,9.341785E-1,8.7013495E-1,1.07974415E1,-2.4581027E0,4.0751963E0],"categories":[],"categories_nodes":[],"categories_segments":[],"categories_sizes":[],"default_left":[0,0,0,0,0,0,0,0,0,0,0,0,0,0,0],"id":9,"left_children":[1,3,5,7,9,11,13,-1,-1,-1,-1,-1,-1,-1,-1],"loss_changes":[2.6648744E5,2.2762862E5,1.0065919E5,1.2337618E5,5.7215406E4,8.965941E4,6.4188625E4,0E0,0E0,0E0,0E0,0E0,0E0,0E0,0E0],"parents":[2147483647,0,0,1,1,2,2,3,3,4,4,5,5,6,6],"right_children":[2,4,6,8,10,12,14,-1,-1,-1,-1,-1,-1,-1,-1],"split_conditions":[1.892E0,4.6496E1,3.793E1,2.6E1,1.9164333E0,5.3E1,2.364E0,5.5852234E-2,-9.994332E-1,3.1335232E0,9.341785E-1,8.7013495E-1,1.07974415E1,-2.4581027E0,4.0751963E0],"split_indices":[5,4,0,21,9,21,6,0,0,0,0,0,0,0,0],"split_type":[0,0,0,0,0,0,0,0,0,0,0,0,0,0,0],"sum_hessian":[4.732E4,4.103E4,6.29E3,3.5363E4,5.667E3,4.621E3,1.669E3,1.5867E4,1.9496E4,1.179E3,4.488E3,4.549E3,7.2E1,1.28E2,1.541E3],"tree_param":{"num_deleted":"0","num_feature":"25","num_nodes":"15","size_leaf_vector":"1"}},{"base_weights":[6.4820633E-4,-6.4135736E-1,7.178716E0,3.0310252E0,-1.5507852E0,1.2263156E1,4.969683E0,1.2879055E0,-1.6104733E0,-1.2435969E0,-3.1246737E-2,2.0799644E0,5.354077E0,-7.9568446E-2,2.1893897E0],"categories":[],"categories_nodes":[],"categories_segments":[],"categories_sizes":[],"default_left":[0,0,0,0,0,0,0,0,0,0,0,0,0,0,0],"id":10,"left_children":[1,3,5,7,9,11,13,-1,-1,-1,-1,-1,-1,-1,-1],"loss_changes":[2.180768E5,1.4507416E5,4.357417E4,1.1729718E5,1.4408772E5,3.867828E4,4.0170266E4,0E0,0E0,0E0,0E0,0E0,0E0,0E0,0E0],"parents":[2147483647,0,0,1,1,2,2,3,3,4,4,5,5,6,6],"right_children":[2,4,6,8,10,12,14,-1,-1,-1,-1,-1,-1,-1,-1],"split_conditions":[1.2992E1,1.17E0,1.5610832E0,3.298E1,9.188688E0,1.7E1,3.6793907E1,1.2879055E0,-1.6104733E0,-1.2435969E0,-3.1246737E-2,2.0799644E0,5.354077E0,-7.9568446E-2,2.1893897E0],"split_indices":[2,9,9,7,1,17,4,0,0,0,0,0,0,0,0],"split_type":[0,0,0,0,0,0,0,0,0,0,0,0,0,0,0],"sum_hessian":[4.732E4,4.3436E4,3.884E3,8.621E3,3.4815E4,1.175E3,2.709E3,7.324E3,1.297E3,1.1616E4,2.3199E4,6.86E2,4.89E2,9.47E2,1.762E3],"tree_param":{"num_deleted":"0","num_feature":"25","num_nodes":"15","size_leaf_vector":"1"}},{"base_weights":[6.3482026E-4,-4.2533083E0,7.457008E-1,1.1790751E1,-4.920788E0,1.4400826E0,-4.642906E0,2.2376093E-1,4.6904187E0,-2.3618467E0,-9.2085975E-1,1.1760878E-1,1.3645614E0,-3.1531804E0,-9.7738904E-1],"categories":[],"categories_nodes":[],"categories_segments":[],"categories_sizes":[],"default_left":[0,0,0,0,0,0,0,0,0,0,0,0,0,0,0],"id":11,"left_children":[1,3,5,7,9,11,13,-1,-1,-1,-1,-1,-1,-1,-1],"loss_changes":[1.499856E5,7.558919E4,1.5068325E5,1.5182348E4,3.87575E4,1.2448278E5,3.5181008E4,0E0,0E0,0E0,0E0,0E0,0E0,0E0,0E0],"parents":[2147483647,0,0,1,1,2,2,3,3,4,4,5,5,6,6],"right_children":[2,4,6,8,10,12,14,-1,-1,-1,-1,-1,-1,-1,-1],"split_conditions":[1.403E1,2.6759154E-1,5E-2,7.9781528E0,2.1E1,1.125477E1,1.25406E2,2.2376093E-1,4.6904187E0,-2.3618467E0,-9.2085975E-1,1.1760878E-1,1.3645614E0,-3.1531804E0,-9.7738904E-1],"split_indices":[0,5,14,2,21,2,16,0,0,0,0,0,0,0,0],"split_type":[0,0,0,0,0,0,0,0,0,0,0,0,0,0,0],"sum_hessian":[4.732E4,7.052E3,4.0268E4,2.81E2,6.771E3,3.5672E4,4.596E3,8.7E1,1.94E2,2.169E3,4.602E3,2.7461E4,8.211E3,6.9E2,3.906E3],"tree_param":{"num_deleted":"0","num_feature":"25","num_nodes":"15","size_leaf_vector":"1"}},{"base_weights":[4.356512E-4,6.9053E-1,-3.6982143E0,-3.866223E-1,4.5335813E0,7.4397287E0,-4.925611E0,-2.1078272E0,4.5061402E-2,5.0342393E0,1.0502257E0,3.057169E0,-2.1708632E-2,-8.355107E-1,-2.8313503E0],"categories":[],"categories_nodes":[],"categories_segments":[],"categories_sizes":[],"default_left":[0,0,0,0,0,0,0,0,0,0,0,0,0,0,0],"id":12,"left_children":[1,3,5,7,9,11,13,-1,-1,-1,-1,-1,-1,-1,-1],"loss_changes":[1.2078549E5,1.650912E5,1.0176015E5,1.21226414E5,9.294969E4,1.9109531E4,6.736789E4,0E0,0E0,0E0,0E0,0E0,0E0,0E0,0E0],"parents":[2147483647,0,0,1,1,2,2,3,3,4,4,5,5,6,6],"right_children":[2,4,6,8,10,12,14,-1,-1,-1,-1,-1,-1,-1,-1],"split_conditions":[7.960562E1,4.1E1,2.6E1,2.017E3,5E-1,2.02E3,8E0,-2.1078272E0,4.5061402E-2,5.0342393E0,1.0502257E0,3.057169E0,-2.1708632E-2,-8.355107E-1,-2.8313503E0],"split_indices":[8,21,20,24,5,24,17,0,0,0,0,0,0,0,0],"split_type":[0,0,0,0,0,0,0,0,0,0,0,0,0,0,0],"sum_hessian":[4.732E4,3.988E4,7.44E3,3.115E4,8.73E3,7.38E2,6.702E3,2.223E3,2.8927E4,4.89E2,8.241E3,5.06E2,2.32E2,4.861E3,1.841E3],"tree_param":{"num_deleted":"0","num_feature":"25","num_nodes":"15","size_leaf_vector":"1"}},{"base_weights":[3.8535843E-4,-9.111522E-1,2.7956262E0,-1.0229752E0,2.3314987E1,4.4862266E0,-3.1527495E0,6.098342E-1,-5.006087E-1,9.715604E0,5.8849745E0,1.4979423E0,-1.9786752E0,-1.5087214E0,1.3435667E0],"categories":[],"categories_nodes":[],"categories_segments":[],"categories_sizes":[],"default_left":[0,0,0,0,0,0,0,0,0,0,0,0,0,0,0],"id":13,"left_children":[1,3,5,7,9,11,13,-1,-1,-1,-1,-1,-1,-1,-1],"loss_changes":[1.2057488E5,9.669591E4,1.17039625E5,8.604547E4,3.6562031E3,8.826105E4,4.5324438E4,0E0,0E0,0E0,0E0,0E0,0E0,0E0,0E0],"parents":[2147483647,0,0,1,1,2,2,3,3,4,4,5,5,6,6],"right_children":[2,4,6,8,10,12,14,-1,-1,-1,-1,-1,-1,-1,-1],"split_conditions":[3.0593792E1,5.3E1,3.31E1,1.3224334E0,1.0546E1,3.138621E-1,7.710853E0,6.098342E-1,-5.006087E-1,9.715604E0,5.8849745E0,1.4979423E0,-1.9786752E0,-1.5087214E0,1.3435667E0],"split_indices":[0,21,7,9,1,12,2,0,0,0,0,0,0,0,0],"split_type":[0,0,0,0,0,0,0,0,0,0,0,0,0,0,0],"sum_hessian":[4.732E4,3.5684E4,1.1636E4,3.5521E4,1.63E2,9.061E3,2.575E3,6.818E3,2.8703E4,2.6E1,1.37E2,8.443E3,6.18E2,2.013E3,5.62E2],"tree_param":{"num_deleted":"0","num_feature":"25","num_nodes":"15","size_leaf_vector":"1"}},{"base_weights":[5.968692E-4,1.0622644E0,-2.05941E0,3.02308E0,-1.3078753E0,-2.8225596E0,6.11845E0,7.479909E-1,3.4528184E0,9.9441695E-1,-8.043241E-1,-2.3718772E0,-5.356492E-1,-1.1153028E0,2.0675716E0],"categories":[],"categories_nodes":[],"categories_segments":[],"categories_sizes":[],"default_left":[0,0,0,0,0,0,0,0,0,0,0,0,0,0,0],"id":14,"left_children":[1,3,5,7,9,11,13,-1,-1,-1,-1,-1,-1,-1,-1],"loss_changes":[1.03495234E5,1.451332E5,1.0045877E5,5.7154906E4,1.0653587E5,7.577098E4,1.720834E4,0E0,0E0,0E0,0E0,0E0,0E0,0E0,0E0],"parents":[2147483647,0,0,1,1,2,2,3,3,4,4,5,5,6,6],"right_children":[2,4,6,8,10,12,14,-1,-1,-1,-1,-1,-1,-1,-1],"split_conditions":[7.533E1,1.5033E2,1.5092E1,1.076E0,1E1,1.515E1,1.5477906E1,7.479909E-1,3.4528184E0,9.9441695E-1,-8.043241E-1,-2.3718772E0,-5.356492E-1,-1.1153028E0,2.0675716E0],"split_indices":[8,10,1,3,17,4,4,0,0,0,0,0,0,0,0],"split_type":[0,0,0,0,0,0,0,0,0,0,0,0,0,0,0],"sum_hessian":[4.732E4,3.1227E4,1.6093E4,1.7089E4,1.4138E4,1.472E4,1.373E3,1.6449E4,6.4E2,3.433E3,1.0705E4,2.063E3,1.2657E4,1.5E2,1.223E3],"tree_param":{"num_deleted":"0","num_feature":"25","num_nodes":"15","size_leaf_vector":"1"}},{"base_weights":[4.8027778E-4,-6.799569E0,2.4877031E-1,-1.6553675E1,-3.3955114E0,1.7283471E0,-1.0418725E0,-5.100466E0,2.2539456E0,-1.6727647E0,1.4304171E0,1.8612191E-1,1.5763478E0,-4.7204447E-1,1.1300709E0],"categories":[],"categories_nodes":[],"categories_segments":[],"categories_sizes":[],"default_left":[0,0,0,0,0,0,0,0,0,0,0,0,0,0,0],"id":15,"left_children":[1,3,5,7,9,11,13,-1,-1,-1,-1,-1,-1,-1,-1],"loss_changes":[7.9897734E4,5.52941E4,8.718482E4,1.7065383E4,2.6875555E4,8.800662E4,7.878259E4,0E0,0E0,0E0,0E0,0E0,0E0,0E0,0E0],"parents":[2147483647,0,0,1,1,2,2,3,3,4,4,5,5,6,6],"right_children":[2,4,6,8,10,12,14,-1,-1,-1,-1,-1,-1,-1,-1],"split_conditions":[1.2094881E1,1.2511703E0,1.8E0,1.81E2,4.6072E1,3.0199907E1,5.5057907E1,-5.100466E0,2.2539456E0,-1.6727647E0,1.4304171E0,1.8612191E-1,1.5763478E0,-4.7204447E-1,1.1300709E0],"split_indices":[4,6,9,20,0,4,4,0,0,0,0,0,0,0,0],"split_type":[0,0,0,0,0,0,0,0,0,0,0,0,0,0,0],"sum_hessian":[4.732E4,1.666E3,4.5654E4,4.3E2,1.236E3,2.127E4,2.4384E4,4.04E2,2.6E1,9.5E2,2.86E2,1.6688E4,4.582E3,2.1656E4,2.728E3],"tree_param":{"num_deleted":"0","num_feature":"25","num_nodes":"15","size_leaf_vector":"1"}},{"base_weights":[3.3207383E-4,-4.4577375E-1,3.2378101E0,-2.6873622E0,5.781133E-1,3.6690265E-1,6.677913E0,9.011758E-2,-1.2533568E0,9.176759E-1,-1.6422552E-1,-6.9321334E-1,1.9214624E0,1.2412689E0,3.1068711E0],"categories":[],"categories_nodes":[],"categories_segments":[],"categories_sizes":[],"default_left":[0,0,0,0,0,0,0,0,0,0,0,0,0,0,0],"id":16,"left_children":[1,3,5,7,9,11,13,-1,-1,-1,-1,-1,-1,-1,-1],"loss_changes":[6.8345164E4,9.545844E4,5.6598145E4,6.9552305E4,8.920955E4,5.7323086E4,2.5755586E4,0E0,0E0,0E0,0E0,0E0,0E0,0E0,0E0],"parents":[2147483647,0,0,1,1,2,2,3,3,4,4,5,5,6,6],"right_children":[2,4,6,8,10,12,14,-1,-1,-1,-1,-1,-1,-1,-1],"split_conditions":[4.312E1,2.1081907E1,1.4718288E0,7.2E1,2.823872E1,7.6E0,3.14E2,9.011758E-2,-1.2533568E0,9.176759E-1,-1.6422552E-1,-6.9321334E-1,1.9214624E0,1.2412689E0,3.1068711E0],"split_indices":[0,4,5,8,7,2,20,0,0,0,0,0,0,0,0],"split_type":[0,0,0,0,0,0,0,0,0,0,0,0,0,0,0],"sum_hessian":[4.732E4,4.159E4,5.73E3,1.304E4,2.855E4,3.124E3,2.606E3,4.836E3,8.204E3,8.62E3,1.993E4,2.173E3,9.51E2,1.72E3,8.86E2],"tree_param":{"num_deleted":"0","num_feature":"25","num_nodes":"15","size_leaf_vector":"1"}},{"base_weights":[3.4697785E-4,-1.5105176E0,8.7741643E-1,1.0027014E0,-3.1036403E0,2.2044544E-1,3.880008E0,3.9603903E0,1.7672457E-3,-9.910233E-1,2.4487963E0,3.233747E-1,-7.297262E-1,-3.5355814E0,1.2660314E0],"categories":[],"categories_nodes":[],"categories_segments":[],"categories_sizes":[],"default_left":[0,0,0,0,0,0,0,0,0,0,0,0,0,0,0],"id":17,"left_children":[1,3,5,7,9,11,13,-1,-1,-1,-1,-1,-1,-1,-1],"loss_changes":[6.2707957E4,6.9594305E4,5.906122E4,8.797031E4,5.322796E4,6.439605E4,5.5398336E4,0E0,0E0,0E0,0E0,0E0,0E0,0E0,0E0],"parents":[2147483647,0,0,1,1,2,2,3,3,4,4,5,5,6,6],"right_children":[2,4,6,8,10,12,14,-1,-1,-1,-1,-1,-1,-1,-1],"split_conditions":[1.7649184E2,9.9410135E-3,2.82E2,2.3E1,5.2E1,2.29E2,7.374E0,3.9603903E0,1.7672457E-3,-9.910233E-1,2.4487963E0,3.233747E-1,-7.297262E-1,-3.5355814E0,1.2660314E0],"split_indices":[16,14,20,20,21,20,1,0,0,0,0,0,0,0,0],"split_type":[0,0,0,0,0,0,0,0,0,0,0,0,0,0,0],"sum_hessian":[4.732E4,1.738E4,2.994E4,6.743E3,1.0637E4,2.4566E4,5.374E3,4.76E2,6.267E3,1.027E4,3.67E2,1.8468E4,6.098E3,1.96E2,5.178E3],"tree_param":{"num_deleted":"0","num_feature":"25","num_nodes":"15","size_leaf_vector":"1"}},{"base_weights":[3.0743488E-4,3.4147155E-1,-3.628179E0,2.1493263E0,-5.823923E-1,5.268204E0,-4.6189156E0,-1.2531989E0,7.535697E-1,3.1655154E-1,-4.9602142E-1,-1.4339404E0,3.653541E0,-9.6310204E-1,-2.9605787E0],"categories":[],"categories_nodes":[],"categories_segments":[],"categories_sizes":[],"default_left":[0,0,0,0,0,0,0,0,0,0,0,0,0,0,0],"id":18,"left_children":[1,3,5,7,9,11,13,-1,-1,-1,-1,-1,-1,-1,-1],"loss_changes":[5.858035E4,7.224626E4,3.5870754E4,5.148847E4,5.786614E4,3.2791188E4,2.5767203E4,0E0,0E0,0E0,0E0,0E0,0E0,0E0,0E0],"parents":[2147483647,0,0,1,1,2,2,3,3,4,4,5,5,6,6],"right_children":[2,4,6,8,10,12,14,-1,-1,-1,-1,-1,-1,-1,-1],"split_conditions":[8.1648254E1,9E0,1.815E1,6.55E0,6.350562E1,1.6E1,3.228E1,-1.2531989E0,7.535697E-1,3.1655154E-1,-4.9602142E-1,-1.4339404E0,3.653541E0,-9.6310204E-1,-2.9605787E0],"split_indices":[8,17,15,1,8,18,7,0,0,0,0,0,0,0,0],"split_type":[0,0,0,0,0,0,0,0,0,0,0,0,0,0,0],"sum_hessian":[4.732E4,4.3254E4,4.066E3,1.4628E4,2.8626E4,4.07E2,3.659E3,1.09E3,1.3538E4,1.1709E4,1.6917E4,1.74E2,2.33E2,3.047E3,6.12E2],"tree_param":{"num_deleted":"0","num_feature":"25","num_nodes":"15","size_leaf_vector":"1"}},{"base_weights":[1.7120483E-4,3.037333E0,-3.7282622E-1,-5.2299194E0,4.331414E0,8.140605E0,-5.1200813E-1,3.6463811E0,-1.8094764E0,1.008267E0,3.3784454E0,6.193106E-1,4.2308755E0,-1.349033E0,-6.355559E-2],"categories":[],"categories_nodes":[],"categories_segments":[],"categories_sizes":[],"default_left":[0,0,0,0,0,0,0,0,0,0,0,0,0,0,0],"id":19,"left_children":[1,3,5,7,9,11,13,-1,-1,-1,-1,-1,-1,-1,-1],"loss_changes":[5.36089E4,5.539806E4,4.9943613E4,1.5519982E4,2.5545773E4,2.7803633E4,5.083497E4,0E0,0E0,0E0,0E0,0E0,0E0,0E0,0E0],"parents":[2147483647,0,0,1,1,2,2,3,3,4,4,5,5,6,6],"right_children":[2,4,6,8,10,12,14,-1,-1,-1,-1,-1,-1,-1,-1],"split_conditions":[9.78E-1,2.017E3,2E-1,1.735E1,2.73642E1,2.9E2,3.9E-1,3.6463811E0,-1.8094764E0,1.008267E0,3.3784454E0,6.193106E-1,4.2308755E0,-1.349033E0,-6.355559E-2],"split_indices":[9,24,3,15,15,20,3,0,0,0,0,0,0,0,0],"split_type":[0,0,0,0,0,0,0,0,0,0,0,0,0,0,0],"sum_hessian":[4.732E4,5.175E3,4.2145E4,7E2,4.475E3,6.77E2,4.1468E4,4.3E1,6.57E2,4.082E3,3.93E2,3.65E2,3.12E2,2.59E3,3.8878E4],"tree_param":{"num_deleted":"0","num_feature":"25","num_nodes":"15","size_leaf_vector":"1"}},{"base_weights":[3.2612422E-4,-2.9074E-1,3.4029665E0,-5.23689E-1,3.4247823E0,-5.8374987E0,4.422559E0,3.5140572E0,-1.6563083E-1,3.0298955E0,5.0103545E-1,-2.9459822E0,-1.770029E-1,2.504265E0,5.960874E-1],"categories":[],"categories_nodes":[],"categories_segments":[],"categories_sizes":[],"default_left":[0,0,0,0,0,0,0,0,0,0,0,0,0,0,0],"id":20,"left_children":[1,3,5,7,9,11,13,-1,-1,-1,-1,-1,-1,-1,-1],"loss_changes":[4.6867402E4,3.7732715E4,3.515861E4,3.514689E4,3.10493E4,8.970371E3,3.468385E4,0E0,0E0,0E0,0E0,0E0,0E0,0E0,0E0],"parents":[2147483647,0,0,1,1,2,2,3,3,4,4,5,5,6,6],"right_children":[2,4,6,8,10,12,14,-1,-1,-1,-1,-1,-1,-1,-1],"split_conditions":[2.13E0,1.5992E1,2.62E0,1E0,2.792208E1,1.78E2,2.018E3,3.5140572E0,-1.6563083E-1,3.0298955E0,5.0103545E-1,-2.9459822E0,-1.770029E-1,2.504265E0,5.960874E-1],"split_indices":[5,1,6,10,7,20,24,0,0,0,0,0,0,0,0],"split_type":[0,0,0,0,0,0,0,0,0,0,0,0,0,0,0],"sum_hessian":[4.732E4,4.3592E4,3.728E3,4.1021E4,2.571E3,3.7E2,3.358E3,2.05E2,4.0816E4,4.68E2,2.103E3,1.95E2,1.75E2,1.137E3,2.221E3],"tree_param":{"num_deleted":"0","num_feature":"25","num_nodes":"15","size_leaf_vector":"1"}},{"base_weights":[3.8069556E-4,5.536778E-1,-1.5279826E0,1.840188E0,-7.7279806E-1,-4.6500194E-1,-3.8259137E0,3.4866476E-1,1.5483359E0,6.9385076E-1,-5.4366636E-1,-1.9414107E0,6.11813E-2,-1.8437773E0,-3.5631257E-1],"categories":[],"categories_nodes":[],"categories_segments":[],"categories_sizes":[],"default_left":[0,0,0,0,0,0,0,0,0,0,0,0,0,0,0],"id":21,"left_children":[1,3,5,7,9,11,13,-1,-1,-1,-1,-1,-1,-1,-1],"loss_changes":[4.001733E4,5.929292E4,3.0721953E4,3.879142E4,6.4448355E4,3.7841258E4,2.7826988E4,0E0,0E0,0E0,0E0,0E0,0E0,0E0,0E0],"parents":[2147483647,0,0,1,1,2,2,3,3,4,4,5,5,6,6],"right_children":[2,4,6,8,10,12,14,-1,-1,-1,-1,-1,-1,-1,-1],"split_conditions":[7.705562E1,1.12965E2,8E0,2.8762201E1,1E1,3.65E-1,2.1E1,3.4866476E-1,1.5483359E0,6.9385076E-1,-5.4366636E-1,-1.9414107E0,6.11813E-2,-1.8437773E0,-3.5631257E-1],"split_indices":[8,10,17,15,17,3,17,0,0,0,0,0,0,0,0],"split_type":[0,0,0,0,0,0,0,0,0,0,0,0,0,0,0],"sum_hessian":[4.732E4,3.4743E4,1.2577E4,1.7637E4,1.7106E4,8.6E3,3.977E3,1.5162E4,2.475E3,4.513E3,1.2593E4,8.23E2,7.777E3,1.921E3,2.056E3],"tree_param":{"num_deleted":"0","num_feature":"25","num_nodes":"15","size_leaf_vector":"1"}},{"base_weights":[2.3128264E-4,-5.73075E-1,1.3318541E0,4.1337233E0,-8.920997E-1,3.8767676E0,-3.1042597E-1,-9.630687E-1,1.9031594E0,-1.0165454E0,-9.709361E-2,-9.6960276E-1,1.3869636E0,-2.6746562E-1,2.4608035E0],"categories":[],"categories_nodes":[],"categories_segments":[],"categories_sizes":[],"default_left":[0,0,0,0,0,0,0,0,0,0,0,0,0,0,0],"id":22,"left_children":[1,3,5,7,9,11,13,-1,-1,-1,-1,-1,-1,-1,-1],"loss_changes":[3.612693E4,4.9676105E4,5.9525082E4,4.1926973E4,4.6150484E4,4.336417E4,5.0358547E4,0E0,0E0,0E0,0E0,0E0,0E0,0E0,0E0],"parents":[2147483647,0,0,1,1,2,2,3,3,4,4,5,5,6,6],"right_children":[2,4,6,8,10,12,14,-1,-1,-1,-1,-1,-1,-1,-1],"split_conditions":[3.3667908E1,5.51575E1,2.8531637E1,8E1,1.5974184E2,5.4483426E-1,2.021E3,-9.630687E-1,1.9031594E0,-1.0165454E0,-9.709361E-2,-9.6960276E-1,1.3869636E0,-2.6746562E-1,2.4608035E0],"split_indices":[4,8,7,20,16,3,24,0,0,0,0,0,0,0,0],"split_type":[0,0,0,0,0,0,0,0,0,0,0,0,0,0,0],"sum_hessian":[4.732E4,3.3079E4,1.4241E4,2.099E3,3.098E4,5.585E3,8.656E3,5.43E2,1.556E3,5.174E3,2.5806E4,7.05E2,4.88E3,8.085E3,5.71E2],"tree_param":{"num_deleted":"0","num_feature":"25","num_nodes":"15","size_leaf_vector":"1"}},{"base_weights":[2.1788136E-4,-6.992648E-1,1.0201743E0,3.249704E-1,-2.5684211E0,-1.6649328E-1,3.2436728E0,1.6774127E0,-1.3962531E-1,-1.1316851E0,3.9735502E-1,5.130808E-1,-4.6951437E-1,4.971581E0,7.5918686E-1],"categories":[],"categories_nodes":[],"categories_segments":[],"categories_sizes":[],"default_left":[0,0,0,0,0,0,0,0,0,0,0,0,0,0,0],"id":23,"left_children":[1,3,5,7,9,11,13,-1,-1,-1,-1,-1,-1,-1,-1],"loss_changes":[3.3761496E4,5.3741523E4,5.079533E4,8.4130336E4,5.7741414E4,3.7628473E4,5.2407914E4,0E0,0E0,0E0,0E0,0E0,0E0,0E0,0E0],"parents":[2147483647,0,0,1,1,2,2,3,3,4,4,5,5,6,6],"right_children":[2,4,6,8,10,12,14,-1,-1,-1,-1,-1,-1,-1,-1],"split_conditions":[1.9E1,2.02E3,2.02E3,4.6E1,3.7E1,2.018E3,5.400562E1,1.6774127E0,-1.3962531E-1,-1.1316851E0,3.9735502E-1,5.130808E-1,-4.6951437E-1,4.971581E0,7.5918686E-1],"split_indices":[18,24,24,20,21,24,8,0,0,0,0,0,0,0,0],"split_type":[0,0,0,0,0,0,0,0,0,0,0,0,0,0,0],"sum_hessian":[4.732E4,2.807E4,1.925E4,1.8134E4,9.936E3,1.2552E4,6.698E3,2.304E3,1.583E4,7.272E3,2.664E3,5.4E3,7.152E3,2.41E2,6.457E3],"tree_param":{"num_deleted":"0","num_feature":"25","num_nodes":"15","size_leaf_vector":"1"}},{"base_weights":[2.9511398E-4,-4.420281E0,1.6170351E-1,-1.0415064E1,-1.5070336E0,1.5554665E0,-3.6706305E-1,-1.6110994E0,-4.112339E0,-1.2359184E0,1.1187421E0,-2.9525703E-1,8.143385E-1,-1.964015E-1,7.2643954E-1],"categories":[],"categories_nodes":[],"categories_segments":[],"categories_sizes":[],"default_left":[0,0,0,0,0,0,0,0,0,0,0,0,0,0,0],"id":24,"left_children":[1,3,5,7,9,11,13,-1,-1,-1,-1,-1,-1,-1,-1],"loss_changes":[3.3765105E4,2.909727E4,3.3647176E4,1.0682301E4,1.7837416E4,4.3938984E4,3.2431533E4,0E0,0E0,0E0,0E0,0E0,0E0,0E0,0E0],"parents":[2147483647,0,0,1,1,2,2,3,3,4,4,5,5,6,6],"right_children":[2,4,6,8,10,12,14,-1,-1,-1,-1,-1,-1,-1,-1],"split_conditions":[1.2094881E1,1.5679257E0,1.3875E0,1.0258288E0,2.0654371E-1,7.8E0,2.3914185E2,-1.6110994E0,-4.112339E0,-1.2359184E0,1.1187421E0,-2.9525703E-1,8.143385E-1,-1.964015E-1,7.2643954E-1],"split_indices":[4,6,9,5,12,2,16,0,0,0,0,0,0,0,0],"split_type":[0,0,0,0,0,0,0,0,0,0,0,0,0,0,0],"sum_hessian":[4.732E4,1.666E3,4.5654E4,5.44E2,1.122E3,1.2556E4,3.3098E4,2.59E2,2.85E2,7.35E2,3.87E2,4.269E3,8.287E3,2.9754E4,3.344E3],"tree_param":{"num_deleted":"0","num_feature":"25","num_nodes":"15","size_leaf_vector":"1"}},{"base_weights":[1.11017536E-4,1.9248949E-1,-3.0051692E0,1.823976E0,-3.0807394E-1,-4.1544876E0,5.2600656E0,1.8979931E0,2.7919382E-1,-7.168097E-1,1.1225289E-1,-1.5216964E0,1.2743977E-1,3.041246E0,1.7724828E-1],"categories":[],"categories_nodes":[],"categories_segments":[],"categories_sizes":[],"default_left":[0,0,0,0,0,0,0,0,0,0,0,0,0,0,0],"id":25,"left_children":[1,3,5,7,9,11,13,-1,-1,-1,-1,-1,-1,-1,-1],"loss_changes":[2.7359273E4,3.632163E4,2.7066607E4,4.274557E4,5.4010582E4,1.4526926E4,8.95492E3,0E0,0E0,0E0,0E0,0E0,0E0,0E0,0E0],"parents":[2147483647,0,0,1,1,2,2,3,3,4,4,5,5,6,6],"right_children":[2,4,6,8,10,12,14,-1,-1,-1,-1,-1,-1,-1,-1],"split_conditions":[3.323E1,2.018E3,2.8321133E1,2.98725E1,2.0957907E1,1.6578288E0,1.0392623E-1,1.8979931E0,2.7919382E-1,-7.168097E-1,1.1225289E-1,-1.5216964E0,1.2743977E-1,3.041246E0,1.7724828E-1],"split_indices":[7,24,15,7,4,5,12,0,0,0,0,0,0,0,0],"split_type":[0,0,0,0,0,0,0,0,0,0,0,0,0,0,0],"sum_hessian":[4.732E4,4.4474E4,2.846E3,1.0441E4,3.4033E4,2.499E3,3.47E2,1.504E3,8.937E3,8.161E3,2.5872E4,1.962E3,5.37E2,1.57E2,1.9E2],"tree_param":{"num_deleted":"0","num_feature":"25","num_nodes":"15","size_leaf_vector":"1"}},{"base_weights":[1.5278721E-4,8.783892E-1,-6.2691355E-1,-4.257986E-1,2.1159592E0,-1.4806383E0,9.097853E-1,-5.154663E-1,3.8350743E-1,2.5258663E-1,1.0224632E0,-3.4223287E-3,-1.1454605E0,2.9493144E-2,1.4738584E0],"categories":[],"categories_nodes":[],"categories_segments":[],"categories_sizes":[],"default_left":[0,0,0,0,0,0,0,0,0,0,0,0,0,0,0],"id":26,"left_children":[1,3,5,7,9,11,13,-1,-1,-1,-1,-1,-1,-1,-1],"loss_changes":[2.6060812E4,3.1818145E4,3.622208E4,2.4213412E4,1.8742246E4,6.765433E4,3.4405844E4,0E0,0E0,0E0,0E0,0E0,0E0,0E0,0E0],"parents":[2147483647,0,0,1,1,2,2,3,3,4,4,5,5,6,6],"right_children":[2,4,6,8,10,12,14,-1,-1,-1,-1,-1,-1,-1,-1],"split_conditions":[1E1,5.966667E-1,1.9E1,5E0,2.6131907E1,6.505562E1,2.8168201E1,-5.154663E-1,3.8350743E-1,2.5258663E-1,1.0224632E0,-3.4223287E-3,-1.1454605E0,2.9493144E-2,1.4738584E0],"split_indices":[17,3,17,17,4,8,15,0,0,0,0,0,0,0,0],"split_type":[0,0,0,0,0,0,0,0,0,0,0,0,0,0,0],"sum_hessian":[4.732E4,1.9712E4,2.7608E4,9.598E3,1.0114E4,1.7748E4,9.86E3,5.372E3,4.226E3,5.622E3,4.492E3,1.1336E4,6.412E3,8.317E3,1.543E3],"tree_param":{"num_deleted":"0","num_feature":"25","num_nodes":"15","size_leaf_vector":"1"}},{"base_weights":[1.4207658E-4,1.2821586E-1,-3.9613304E0,-4.2398465E-1,1.0490031E0,-3.5314782E0,-2.6156826E1,-2.0874558E-1,6.3403594E-1,9.89529E-2,1.1961215E0,3.5282558E-1,-1.5026971E0,-8.351804E0,3.781666E0],"categories":[],"categories_nodes":[],"categories_segments":[],"categories_sizes":[],"default_left":[0,0,0,0,0,0,0,0,0,0,0,0,0,0,0],"id":27,"left_children":[1,3,5,7,9,11,13,-1,-1,-1,-1,-1,-1,-1,-1],"loss_changes":[2.4009326E4,2.3308215E4,1.4047076E4,2.4494328E4,3.8411785E4,1.265692E4,4.354217E3,0E0,0E0,0E0,0E0,0E0,0E0,0E0,0E0],"parents":[2147483647,0,0,1,1,2,2,3,3,4,4,5,5,6,6],"right_children":[2,4,6,8,10,12,14,-1,-1,-1,-1,-1,-1,-1,-1],"split_conditions":[8.42525E1,2.0080554E2,3.66E0,5.386E1,4E1,2.017E3,3.0432203E0,-2.0874558E-1,6.3403594E-1,9.89529E-2,1.1961215E0,3.5282558E-1,-1.5026971E0,-8.351804E0,3.781666E0],"split_indices":[8,16,9,4,21,24,6,0,0,0,0,0,0,0,0],"split_type":[0,0,0,0,0,0,0,0,0,0,0,0,0,0,0],"sum_hessian":[4.732E4,4.5839E4,1.481E3,2.8655E4,1.7184E4,1.454E3,2.7E1,2.5609E4,3.046E3,1.4118E4,3.066E3,4E2,1.054E3,2.5E1,2E0],"tree_param":{"num_deleted":"0","num_feature":"25","num_nodes":"15","size_leaf_vector":"1"}},{"base_weights":[1.7962193E-5,2.3973846E0,-1.8909538E-1,-3.9125063E0,3.6171956E0,-1.8110254E0,1.3825552E-1,6.4038855E-1,-2.1742218E0,4.5819417E-1,1.837931E0,-1.0548126E0,2.094576E-2,1.7752547E0,1.0367212E-2],"categories":[],"categories_nodes":[],"categories_segments":[],"categories_sizes":[],"default_left":[0,0,0,0,0,0,0,0,0,0,0,0,0,0,0],"id":28,"left_children":[1,3,5,7,9,11,13,-1,-1,-1,-1,-1,-1,-1,-1],"loss_changes":[2.1454566E4,2.6645334E4,2.3288352E4,1.3303227E4,1.6832031E4,2.6983357E4,2.2859703E4,0E0,0E0,0E0,0E0,0E0,0E0,0E0,0E0],"parents":[2147483647,0,0,1,1,2,2,3,3,4,4,5,5,6,6],"right_children":[2,4,6,8,10,12,14,-1,-1,-1,-1,-1,-1,-1,-1],"split_conditions":[8.7E-1,2.017E3,1.6891907E1,9.95E0,2.50442E1,1.5E1,2.6759154E-1,6.4038855E-1,-2.1742218E0,4.5819417E-1,1.837931E0,-1.0548126E0,2.094576E-2,1.7752547E0,1.0367212E-2],"split_indices":[9,24,4,1,15,18,5,0,0,0,0,0,0,0,0],"split_type":[0,0,0,0,0,0,0,0,0,0,0,0,0,0,0],"sum_hessian":[4.732E4,3.459E3,4.3861E4,5.6E2,2.899E3,7.365E3,3.6496E4,2.14E2,3.46E2,1.727E3,1.172E3,3.627E3,3.738E3,5.88E2,3.5908E4],"tree_param":{"num_deleted":"0","num_feature":"25","num_nodes":"15","size_leaf_vector":"1"}},{"base_weights":[4.4320896E-5,-2.6402535E0,1.7767595E-1,-6.59955E0,-8.935235E-1,7.207285E-1,-8.083963E-1,-1.2215104E0,-2.8368428E0,1.5917675E0,-6.101524E-1,4.506518E-1,-1.07669644E-1,1.0747261E-2,-6.7514175E-1],"categories":[],"categories_nodes":[],"categories_segments":[],"categories_sizes":[],"default_left":[0,0,0,0,0,0,0,0,0,0,0,0,0,0,0],"id":29,"left_children":[1,3,5,7,9,11,13,-1,-1,-1,-1,-1,-1,-1,-1],"loss_changes":[2.2194037E4,2.0623998E4,2.374363E4,7.145824E3,1.736787E4,2.7871781E4,2.1254684E4,0E0,0E0,0E0,0E0,0E0,0E0,0E0,0E0],"parents":[2147483647,0,0,1,1,2,2,3,3,4,4,5,5,6,6],"right_children":[2,4,6,8,10,12,14,-1,-1,-1,-1,-1,-1,-1,-1],"split_conditions":[1.197424E1,1.4E2,7.477113E1,1.6E1,1.72E2,1.5719E2,9E0,-1.2215104E0,-2.8368428E0,1.5917675E0,-6.101524E-1,4.506518E-1,-1.07669644E-1,1.0747261E-2,-6.7514175E-1],"split_indices":[0,20,8,18,20,10,17,0,0,0,0,0,0,0,0],"split_type":[0,0,0,0,0,0,0,0,0,0,0,0,0,0,0],"sum_hessian":[4.732E4,2.982E3,4.4338E4,9.12E2,2.07E3,2.8592E4,1.5746E4,5.56E2,3.56E2,3.37E2,1.733E3,1.5885E4,1.2707E4,1.0285E4,5.461E3],"tree_param":{"num_deleted":"0","num_feature":"25","num_nodes":"15","size_leaf_vector":"1"}},{"base_weights":[-4.117025E-5,-3.9107297E-2,1.089987E1,-1.0402903E1,3.4865951E-3,1.3628194E1,3.9401343E0,-6.0528846E0,-2.167031E0,9.572804E-1,-3.3996347E-2,6.1369987E0,3.1014493E0,1.873409E0,-9.422155E-1],"categories":[],"categories_nodes":[],"categories_segments":[],"categories_sizes":[],"default_left":[0,0,0,0,0,0,0,0,0,0,0,0,0,0,0],"id":30,"left_children":[1,3,5,7,9,11,13,-1,-1,-1,-1,-1,-1,-1,-1],"loss_changes":[2.0150527E4,2.081499E4,3.1553457E3,5.618449E3,1.9892957E4,2.3334043E3,9.968252E2,0E0,0E0,0E0,0E0,0E0,0E0,0E0,0E0],"parents":[2147483647,0,0,1,1,2,2,3,3,4,4,5,5,6,6],"right_children":[2,4,6,8,10,12,14,-1,-1,-1,-1,-1,-1,-1,-1],"split_conditions":[5.3E1,3E0,3E1,5.502055E-1,1.7E1,1.0856688E1,1.318E1,-6.0528846E0,-2.167031E0,9.572804E-1,-3.3996347E-2,6.1369987E0,3.1014493E0,1.873409E0,-9.422155E-1],"split_indices":[21,20,18,3,20,1,1,0,0,0,0,0,0,0,0],"split_type":[0,0,0,0,0,0,0,0,0,0,0,0,0,0,0],"sum_hessian":[4.732E4,4.7152E4,1.68E2,1.92E2,4.696E4,1.2E2,4.8E1,3.6E1,1.56E2,1.656E3,4.5304E4,2.7E1,9.3E1,3.5E1,1.3E1],"tree_param":{"num_deleted":"0","num_feature":"25","num_nodes":"15","size_leaf_vector":"1"}},{"base_weights":[3.1294087E-5,4.9468106E-1,-8.098843E-1,7.276462E-1,-3.3274546E0,-1.510958E0,1.8865238E0,1.2571352E0,1.3193443E-1,-2.7751627E0,-4.2524207E-1,-3.944369E-1,-4.956791E0,1.8925339E0,2.1078232E-1],"categories":[],"categories_nodes":[],"categories_segments":[],"categories_sizes":[],"default_left":[0,0,0,0,0,0,0,0,0,0,0,0,0,0,0],"id":31,"left_children":[1,3,5,7,9,11,13,-1,-1,-1,-1,-1,-1,-1,-1],"loss_changes":[1.8958355E4,2.6162195E4,3.392195E4,2.6775707E4,2.0038504E4,2.4613705E4,2.0397912E4,0E0,0E0,0E0,0E0,0E0,0E0,0E0,0E0],"parents":[2147483647,0,0,1,1,2,2,3,3,4,4,5,5,6,6],"right_children":[2,4,6,8,10,12,14,-1,-1,-1,-1,-1,-1,-1,-1],"split_conditions":[1.1362688E1,3.138621E-1,1.5512E1,7E-2,1.0831703E0,3.005E2,2.792208E1,1.2571352E0,1.3193443E-1,-2.7751627E0,-4.2524207E-1,-3.944369E-1,-4.956791E0,1.8925339E0,2.1078232E-1],"split_indices":[1,12,1,13,6,16,7,0,0,0,0,0,0,0,0],"split_type":[0,0,0,0,0,0,0,0,0,0,0,0,0,0,0],"sum_hessian":[4.732E4,2.9378E4,1.7942E4,2.7691E4,1.687E3,1.424E4,3.702E3,1.784E3,2.5907E4,3.65E2,1.322E3,1.4147E4,9.3E1,7.02E2,3E3],"tree_param":{"num_deleted":"0","num_feature":"25","num_nodes":"15","size_leaf_vector":"1"}},{"base_weights":[-8.4239626E-5,-9.898458E-2,3.5122514E0,6.830338E-1,-5.725076E-1,-2.6386611E0,5.036239E0,-9.3435156E-1,2.9425842E-1,4.0008326E0,-1.7924039E-1,1.2981805E0,-1.537983E0,4.170849E0,9.742964E-1],"categories":[],"categories_nodes":[],"categories_segments":[],"categories_sizes":[],"default_left":[0,0,0,0,0,0,0,0,0,0,0,0,0,0,0],"id":32,"left_children":[1,3,5,7,9,11,13,-1,-1,-1,-1,-1,-1,-1,-1],"loss_changes":[1.6438299E4,1.7043988E4,1.2161883E4,2.5339932E4,2.7759244E4,5.333614E3,1.5935148E4,0E0,0E0,0E0,0E0,0E0,0E0,0E0,0E0],"parents":[2147483647,0,0,1,1,2,2,3,3,4,4,5,5,6,6],"right_children":[2,4,6,8,10,12,14,-1,-1,-1,-1,-1,-1,-1,-1],"split_conditions":[2.56E0,9E0,3.3491702E0,3.35E-1,1E0,6.337162E1,7.128688E0,-9.3435156E-1,2.9425842E-1,4.0008326E0,-1.7924039E-1,1.2981805E0,-1.537983E0,4.170849E0,9.742964E-1],"split_indices":[5,17,6,3,10,8,1,0,0,0,0,0,0,0,0],"split_type":[0,0,0,0,0,0,0,0,0,0,0,0,0,0,0],"sum_hessian":[4.732E4,4.6025E4,1.295E3,1.7358E4,2.8667E4,2.57E2,1.038E3,1.445E3,1.5913E4,1.25E2,2.8542E4,7.2E1,1.85E2,1.42E2,8.96E2],"tree_param":{"num_deleted":"0","num_feature":"25","num_nodes":"15","size_leaf_vector":"1"}},{"base_weights":[1.09585904E-4,2.1380816E-1,-1.7970576E0,6.7124325E-1,-6.529849E-1,3.0618615E0,-2.518994E0,-7.1043044E-1,2.5624678E-1,-3.0319845E-2,-1.3075844E0,5.585367E0,-1.7453949E-1,-3.7595373E-1,-1.5708076E0],"categories":[],"categories_nodes":[],"categories_segments":[],"categories_sizes":[],"default_left":[0,0,0,0,0,0,0,0,0,0,0,0,0,0,0],"id":33,"left_children":[1,3,5,7,9,11,13,-1,-1,-1,-1,-1,-1,-1,-1],"loss_changes":[1.8174115E4,1.676968E4,1.7648594E4,2.1319145E4,3.1856988E4,4.0328273E4,1.5875936E4,0E0,0E0,0E0,0E0,0E0,0E0,0E0,0E0],"parents":[2147483647,0,0,1,1,2,2,3,3,4,4,5,5,6,6],"right_children":[2,4,6,8,10,12,14,-1,-1,-1,-1,-1,-1,-1,-1],"split_conditions":[8.100562E1,2.276E0,2.017E3,5E0,1.217272E0,3.222E1,4.2E1,-7.1043044E-1,2.5624678E-1,-3.0319845E-2,-1.3075844E0,5.585367E0,-1.7453949E-1,-3.7595373E-1,-1.5708076E0],"split_indices":[8,9,24,2,13,7,21,0,0,0,0,0,0,0,0],"split_type":[0,0,0,0,0,0,0,0,0,0,0,0,0,0,0],"sum_hessian":[4.732E4,4.2292E4,5.028E3,2.7683E4,1.4609E4,6.5E2,4.378E3,1.936E3,2.5747E4,1.2858E4,1.751E3,1.16E2,5.34E2,3.163E3,1.215E3],"tree_param":{"num_deleted":"0","num_feature":"25","num_nodes":"15","size_leaf_vector":"1"}},{"base_weights":[1.1323573E-4,-1.9088444E-1,1.7629399E0,1.269899E-1,-1.3730199E0,-2.8067584E0,3.3214245E0,-1.3389933E-1,3.6631528E-1,-6.788781E-1,3.975347E-1,-1.5358295E0,1.2940378E-1,4.097774E-1,2.4830418E0],"categories":[],"categories_nodes":[],"categories_segments":[],"categories_sizes":[],"default_left":[0,0,0,0,0,0,0,0,0,0,0,0,0,0,0],"id":34,"left_children":[1,3,5,7,9,11,13,-1,-1,-1,-1,-1,-1,-1,-1],"loss_changes":[1.5933118E4,1.6044074E4,3.295479E4,2.389451E4,2.6309336E4,1.0227243E4,3.5436797E4,0E0,0E0,0E0,0E0,0E0,0E0,0E0,0E0],"parents":[2147483647,0,0,1,1,2,2,3,3,4,4,5,5,6,6],"right_children":[2,4,6,8,10,12,14,-1,-1,-1,-1,-1,-1,-1,-1],"split_conditions":[3.0908201E1,1.8231485E2,1.3954241E1,2.657E1,4.498591E1,1.4E2,2.02E3,-1.3389933E-1,3.6631528E-1,-6.788781E-1,3.975347E-1,-1.5358295E0,1.2940378E-1,4.097774E-1,2.4830418E0],"split_indices":[15,10,0,15,4,20,24,0,0,0,0,0,0,0,0],"split_type":[0,0,0,0,0,0,0,0,0,0,0,0,0,0,0],"sum_hessian":[4.732E4,4.2695E4,4.625E3,3.3648E4,9.047E3,1.176E3,3.449E3,2.2241E4,1.1407E4,6.584E3,2.463E3,6.48E2,5.28E2,2.579E3,8.7E2],"tree_param":{"num_deleted":"0","num_feature":"25","num_nodes":"15","size_leaf_vector":"1"}},{"base_weights":[1.10897E-4,-2.5823453E-1,1.3143692E0,-4.0389648E-1,2.5950847E0,4.7106987E-1,4.487821E0,-2.3331491E-2,-7.1570814E-1,8.6966276E-1,-3.3594391E0,-6.842616E-2,1.2369317E0,6.2315807E0,9.873349E-1],"categories":[],"categories_nodes":[],"categories_segments":[],"categories_sizes":[],"default_left":[0,0,0,0,0,0,0,0,0,0,0,0,0,0,0],"id":35,"left_children":[1,3,5,7,9,11,13,-1,-1,-1,-1,-1,-1,-1,-1],"loss_changes":[1.6067362E4,1.643799E4,2.080243E4,2.5874719E4,1.4007071E4,1.7256049E4,2.8044367E4,0E0,0E0,0E0,0E0,0E0,0E0,0E0,0E0],"parents":[2147483647,0,0,1,1,2,2,3,3,4,4,5,5,6,6],"right_children":[2,4,6,8,10,12,14,-1,-1,-1,-1,-1,-1,-1,-1],"split_conditions":[2.2730376E2,1.0002055E0,2.02E3,3.16E2,3.61964E2,4.5E1,5.8E1,-2.3331491E-2,-7.1570814E-1,8.6966276E-1,-3.3594391E0,-6.842616E-2,1.2369317E0,6.2315807E0,9.873349E-1],"split_indices":[16,3,24,20,10,21,8,0,0,0,0,0,0,0,0],"split_type":[0,0,0,0,0,0,0,0,0,0,0,0,0,0,0],"sum_hessian":[4.732E4,3.9547E4,7.773E3,3.7627E4,1.92E3,6.142E3,1.631E3,3.2728E4,4.899E3,1.857E3,6.3E1,5.198E3,9.44E2,8.4E1,1.547E3],"tree_param":{"num_deleted":"0","num_feature":"25","num_nodes":"15","size_leaf_vector":"1"}},{"base_weights":[1.8834932E-4,-1.7773986E-1,1.7190654E0,8.076456E-1,-5.806094E-1,2.5482583E0,-3.5600922E0,-7.404628E-1,4.3844378E-1,-3.3333772E-1,2.2300252E-1,1.5746931E0,4.8433656E-1,-1.1058091E0,6.0804133E0],"categories":[],"categories_nodes":[],"categories_segments":[],"categories_sizes":[],"default_left":[0,0,0,0,0,0,0,0,0,0,0,0,0,0,0],"id":36,"left_children":[1,3,5,7,9,11,13,-1,-1,-1,-1,-1,-1,-1,-1],"loss_changes":[1.4472805E4,1.7024236E4,1.9440527E4,3.2251482E4,2.5334902E4,9.658809E3,5.785788E3,0E0,0E0,0E0,0E0,0E0,0E0,0E0,0E0],"parents":[2147483647,0,0,1,1,2,2,3,3,4,4,5,5,6,6],"right_children":[2,4,6,8,10,12,14,-1,-1,-1,-1,-1,-1,-1,-1],"split_conditions":[5.1042057E1,2.018E3,3.0906105E1,9.4E1,2.2E1,1.1E1,3.932E0,-7.404628E-1,4.3844378E-1,-3.3333772E-1,2.2300252E-1,1.5746931E0,4.8433656E-1,-1.1058091E0,6.0804133E0],"split_indices":[4,24,7,20,18,17,9,0,0,0,0,0,0,0,0],"split_type":[0,0,0,0,0,0,0,0,0,0,0,0,0,0,0],"sum_hessian":[4.732E4,4.2882E4,4.438E3,1.2444E4,3.0438E4,3.836E3,6.02E2,2.232E3,1.0212E4,2.1127E4,9.311E3,8.14E2,3.022E3,5.94E2,8E0],"tree_param":{"num_deleted":"0","num_feature":"25","num_nodes":"15","size_leaf_vector":"1"}},{"base_weights":[2.7476635E-4,6.1908327E-2,-4.5312E0,3.590382E0,-4.379936E-2,-3.263621E0,-1.3952271E1,-2.1283722E-1,2.6629486E0,5.046242E-2,-4.6001777E-1,-1.8339893E0,2.991574E-1,5.5027676E-1,-4.9557095E0],"categories":[],"categories_nodes":[],"categories_segments":[],"categories_sizes":[],"default_left":[0,0,0,0,0,0,0,0,0,0,0,0,0,0,0],"id":37,"left_children":[1,3,5,7,9,11,13,-1,-1,-1,-1,-1,-1,-1,-1],"loss_changes":[1.3216605E4,1.7413793E4,7.5376025E3,3.4761836E4,1.6133568E4,7.930051E3,4.4302715E3,0E0,0E0,0E0,0E0,0E0,0E0,0E0,0E0],"parents":[2147483647,0,0,1,1,2,2,3,3,4,4,5,5,6,6],"right_children":[2,4,6,8,10,12,14,-1,-1,-1,-1,-1,-1,-1,-1],"split_conditions":[8.6E1,1.93782E1,3.323E1,4.1E1,3.16E2,9.188688E0,1.3773907E1,-2.1283722E-1,2.6629486E0,5.046242E-2,-4.6001777E-1,-1.8339893E0,2.991574E-1,5.5027676E-1,-4.9557095E0],"split_indices":[8,15,7,21,20,1,4,0,0,0,0,0,0,0,0],"split_type":[0,0,0,0,0,0,0,0,0,0,0,0,0,0,0],"sum_hessian":[4.732E4,4.6686E4,6.34E2,1.357E3,4.5329E4,5.6E2,7.4E1,7.81E2,5.76E2,3.9756E4,5.573E3,3.19E2,2.41E2,1.4E1,6E1],"tree_param":{"num_deleted":"0","num_feature":"25","num_nodes":"15","size_leaf_vector":"1"}},{"base_weights":[1.16181276E-4,-2.6914222E0,9.833115E-2,-7.3690205E0,1.6799908E0,2.6333308E0,-3.935312E-2,-2.2495184E0,3.598583E0,3.0417877E-1,4.8174424E0,-6.340459E-1,1.7602577E0,1.6690239E0,-3.2033466E-2],"categories":[],"categories_nodes":[],"categories_segments":[],"categories_sizes":[],"default_left":[0,0,0,0,0,0,0,0,0,0,0,0,0,0,0],"id":38,"left_children":[1,3,5,7,9,11,13,-1,-1,-1,-1,-1,-1,-1,-1],"loss_changes":[1.2509541E4,3.4078273E4,1.5935399E4,1.0438121E4,7.9461177E3,4.1772125E4,1.9327605E4,0E0,0E0,0E0,0E0,0E0,0E0,0E0,0E0],"parents":[2147483647,0,0,1,1,2,2,3,3,4,4,5,5,6,6],"right_children":[2,4,6,8,10,12,14,-1,-1,-1,-1,-1,-1,-1,-1],"split_conditions":[5.9726877E0,1.76E2,8.727208E-2,9.817E1,3.49E2,9.5E1,2.6759154E-1,-2.2495184E0,3.598583E0,3.0417877E-1,4.8174424E0,-6.340459E-1,1.7602577E0,1.6690239E0,-3.2033466E-2],"split_indices":[1,20,13,0,16,20,5,0,0,0,0,0,0,0,0],"split_type":[0,0,0,0,0,0,0,0,0,0,0,0,0,0,0],"sum_hessian":[4.732E4,1.665E3,4.5655E4,8.04E2,8.61E2,2.351E3,4.3304E4,7.8E2,2.4E1,8.3E2,3.1E1,1.002E3,1.349E3,5.33E2,4.2771E4],"tree_param":{"num_deleted":"0","num_feature":"25","num_nodes":"15","size_leaf_vector":"1"}},{"base_weights":[2.7926714E-4,-1.0542558E-1,2.353849E0,3.2514544E0,-2.0227313E-1,3.9964223E0,-9.299261E-1,-8.7643325E-1,2.0581384E0,1.3682616E-1,-2.0900452E-1,1.350618E0,-1.9942123E-1,1.6878687E-1,-2.2461224E0],"categories":[],"categories_nodes":[],"categories_segments":[],"categories_sizes":[],"default_left":[0,0,0,0,0,0,0,0,0,0,0,0,0,0,0],"id":39,"left_children":[1,3,5,7,9,11,13,-1,-1,-1,-1,-1,-1,-1,-1],"loss_changes":[1.1772942E4,1.4724039E4,1.097479E4,3.29743E4,1.6428771E4,5.172713E3,7.345583E3,0E0,0E0,0E0,0E0,0E0,0E0,0E0,0E0],"parents":[2147483647,0,0,1,1,2,2,3,3,4,4,5,5,6,6],"right_children":[2,4,6,8,10,12,14,-1,-1,-1,-1,-1,-1,-1,-1],"split_conditions":[5.9565907E1,4.812E1,3.02475E1,8.9E1,1E1,2.8E1,3.42E2,-8.7643325E-1,2.0581384E0,1.3682616E-1,-2.0900452E-1,1.350618E0,-1.9942123E-1,1.6878687E-1,-2.2461224E0],"split_indices":[4,8,7,20,17,18,20,0,0,0,0,0,0,0,0],"split_type":[0,0,0,0,0,0,0,0,0,0,0,0,0,0,0],"sum_hessian":[4.732E4,4.5287E4,2.033E3,1.269E3,4.4018E4,1.355E3,6.78E2,4.95E2,7.74E2,1.9368E4,2.465E4,1.156E3,1.99E2,5.58E2,1.2E2],"tree_param":{"num_deleted":"0","num_feature":"25","num_nodes":"15","size_leaf_vector":"1"}},{"base_weights":[2.0551292E-4,4.76536E-1,-5.3909487E-1,1.7136272E0,-7.9597384E-2,-2.9758924E-1,-3.889867E0,9.1350384E-2,1.1688035E0,7.69935E-1,-1.345899E-1,-1.824953E-1,5.1476103E-1,-5.1623464E-1,-2.0548682E0],"categories":[],"categories_nodes":[],"categories_segments":[],"categories_sizes":[],"default_left":[0,0,0,0,0,0,0,0,0,0,0,0,0,0,0],"id":40,"left_children":[1,3,5,7,9,11,13,-1,-1,-1,-1,-1,-1,-1,-1],"loss_changes":[1.2156322E4,1.728789E4,1.7958898E4,2.6464496E4,1.9522623E4,1.5513515E4,1.0469596E4,0E0,0E0,0E0,0E0,0E0,0E0,0E0,0E0],"parents":[2147483647,0,0,1,1,2,2,3,3,4,4,5,5,6,6],"right_children":[2,4,6,8,10,12,14,-1,-1,-1,-1,-1,-1,-1,-1],"split_conditions":[7.2E1,6.9912125E1,1.65584E2,2.7394201E1,9E0,3.748E1,1E1,9.1350384E-2,1.1688035E0,7.69935E-1,-1.345899E-1,-1.824953E-1,5.1476103E-1,-5.1623464E-1,-2.0548682E0],"split_indices":[8,10,10,15,17,0,17,0,0,0,0,0,0,0,0],"split_type":[0,0,0,0,0,0,0,0,0,0,0,0,0,0,0],"sum_hessian":[4.732E4,2.5127E4,2.2193E4,7.792E3,1.7335E4,2.0702E4,1.491E3,4.971E3,2.821E3,2.15E3,1.5185E4,1.7767E4,2.935E3,9.33E2,5.58E2],"tree_param":{"num_deleted":"0","num_feature":"25","num_nodes":"15","size_leaf_vector":"1"}},{"base_weights":[1.4077399E-4,-3.5077465E-1,7.4417585E-1,6.0345884E-2,-1.4759762E0,2.391127E0,-3.2262135E-1,-6.002734E-1,1.5638174E-1,6.1300874E-1,-7.4475473E-1,1.5495571E0,3.548296E-1,-2.1534319E-1,1.575539E0],"categories":[],"categories_nodes":[],"categories_segments":[],"categories_sizes":[],"default_left":[0,0,0,0,0,0,0,0,0,0,0,0,0,0,0],"id":41,"left_children":[1,3,5,7,9,11,13,-1,-1,-1,-1,-1,-1,-1,-1],"loss_changes":[1.235546E4,1.4875245E4,2.6646871E4,2.5669768E4,3.696734E4,2.1004965E4,2.4223338E4,0E0,0E0,0E0,0E0,0E0,0E0,0E0,0E0],"parents":[2147483647,0,0,1,1,2,2,3,3,4,4,5,5,6,6],"right_children":[2,4,6,8,10,12,14,-1,-1,-1,-1,-1,-1,-1,-1],"split_conditions":[3.264591E1,7.2E-1,2.8531637E1,2.820664E1,1.0644333E0,3.211485E1,2.021E3,-6.002734E-1,1.5638174E-1,6.1300874E-1,-7.4475473E-1,1.5495571E0,3.548296E-1,-2.1534319E-1,1.575539E0],"split_indices":[4,3,7,7,9,10,24,0,0,0,0,0,0,0,0],"split_type":[0,0,0,0,0,0,0,0,0,0,0,0,0,0,0],"sum_hessian":[4.732E4,3.2155E4,1.5165E4,2.3551E4,8.604E3,5.961E3,9.204E3,4.339E3,1.9212E4,2.091E3,6.513E3,1.581E3,4.38E3,8.564E3,6.4E2],"tree_param":{"num_deleted":"0","num_feature":"25","num_nodes":"15","size_leaf_vector":"1"}},{"base_weights":[1.5722666E-4,1.7200041E-1,-1.5078102E0,-4.8781723E-2,2.7669177E0,-7.007376E-1,-7.0216727E0,5.24799E-2,-7.598592E-1,4.195944E-1,2.7795482E0,7.2635424E-1,-6.242631E-1,-3.1093476E0,-2.9932135E-1],"categories":[],"categories_nodes":[],"categories_segments":[],"categories_sizes":[],"default_left":[0,0,0,0,0,0,0,0,0,0,0,0,0,0,0],"id":42,"left_children":[1,3,5,7,9,11,13,-1,-1,-1,-1,-1,-1,-1,-1],"loss_changes":[1.2262736E4,2.4337984E4,2.1537953E4,2.4487398E4,3.0213195E4,2.11127E4,1.4873186E4,0E0,0E0,0E0,0E0,0E0,0E0,0E0,0E0],"parents":[2147483647,0,0,1,1,2,2,3,3,4,4,5,5,6,6],"right_children":[2,4,6,8,10,12,14,-1,-1,-1,-1,-1,-1,-1,-1],"split_conditions":[3.277E1,7.929046E2,2.8E1,3.0952772E1,7.8E0,2.2E1,3.1544838E-2,5.24799E-2,-7.598592E-1,4.195944E-1,2.7795482E0,7.2635424E-1,-6.242631E-1,-3.1093476E0,-2.9932135E-1],"split_indices":[7,11,18,7,2,21,12,0,0,0,0,0,0,0,0],"split_type":[0,0,0,0,0,0,0,0,0,0,0,0,0,0,0],"sum_hessian":[4.732E4,4.248E4,4.84E3,3.915E4,3.33E3,4.223E3,6.17E2,3.5961E4,3.189E3,2.826E3,5.04E2,1.336E3,2.887E3,3.67E2,2.5E2],"tree_param":{"num_deleted":"0","num_feature":"25","num_nodes":"15","size_leaf_vector":"1"}},{"base_weights":[9.506143E-5,-5.71351E-1,4.377907E-1,-4.0754676E0,-2.722702E-1,6.6316855E-1,-3.1815891E0,-1.8100562E0,-2.634694E-1,4.1549572E-1,-3.152974E-1,-1.9893923E-1,3.4480095E-1,-3.6012383E0,-5.0550675E-1],"categories":[],"categories_nodes":[],"categories_segments":[],"categories_sizes":[],"default_left":[0,0,0,0,0,0,0,0,0,0,0,0,0,0,0],"id":43,"left_children":[1,3,5,7,9,11,13,-1,-1,-1,-1,-1,-1,-1,-1],"loss_changes":[1.1836152E4,2.1509375E4,2.1861178E4,1.1976629E4,2.8140637E4,1.950534E4,2.0903559E4,0E0,0E0,0E0,0E0,0E0,0E0,0E0,0E0],"parents":[2147483647,0,0,1,1,2,2,3,3,4,4,5,5,6,6],"right_children":[2,4,6,8,10,12,14,-1,-1,-1,-1,-1,-1,-1,-1],"split_conditions":[2.5952E1,3.4E-1,3.17E2,6E0,2.2555E1,1.9E1,3.3897907E1,-1.8100562E0,-2.634694E-1,4.1549572E-1,-3.152974E-1,-1.9893923E-1,3.4480095E-1,-3.6012383E0,-5.0550675E-1],"split_indices":[15,3,20,17,15,21,4,0,0,0,0,0,0,0,0],"split_type":[0,0,0,0,0,0,0,0,0,0,0,0,0,0,0],"sum_hessian":[4.732E4,2.0524E4,2.6796E4,1.613E3,1.8911E4,2.5226E4,1.57E3,9.19E2,6.94E2,6.179E3,1.2732E4,7.351E3,1.7875E4,1.96E2,1.374E3],"tree_param":{"num_deleted":"0","num_feature":"25","num_nodes":"15","size_leaf_vector":"1"}},{"base_weights":[-5.7425943E-5,-6.927807E-1,3.1194088E-1,-2.1506188E-2,-3.483899E0,6.379271E-1,-1.3659521E0,-7.444394E-1,1.9717331E-1,-1.7010893E0,-2.2932169E-1,-3.539713E-1,2.5496387E-1,6.325354E-2,-1.0609512E0],"categories":[],"categories_nodes":[],"categories_segments":[],"categories_sizes":[],"default_left":[0,0,0,0,0,0,0,0,0,0,0,0,0,0,0],"id":44,"left_children":[1,3,5,7,9,11,13,-1,-1,-1,-1,-1,-1,-1,-1],"loss_changes":[1.0227633E4,2.7532578E4,1.7846863E4,2.2515424E4,1.9527035E4,1.3968497E4,2.0351307E4,0E0,0E0,0E0,0E0,0E0,0E0,0E0,0E0],"parents":[2147483647,0,0,1,1,2,2,3,3,4,4,5,5,6,6],"right_children":[2,4,6,8,10,12,14,-1,-1,-1,-1,-1,-1,-1,-1],"split_conditions":[5.6E-1,1.1362688E1,1.5954484E-1,2.8515621E1,2.02E2,1.6891907E1,2.52E2,-7.444394E-1,1.9717331E-1,-1.7010893E0,-2.2932169E-1,-3.539713E-1,2.5496387E-1,6.325354E-2,-1.0609512E0],"split_indices":[3,1,12,7,20,4,20,0,0,0,0,0,0,0,0],"split_type":[0,0,0,0,0,0,0,0,0,0,0,0,0,0,0],"sum_hessian":[4.732E4,1.4694E4,3.2626E4,1.1846E4,2.848E3,2.7319E4,5.307E3,2.556E3,9.29E3,1.45E3,1.398E3,3.396E3,2.3923E4,3.197E3,2.11E3],"tree_param":{"num_deleted":"0","num_feature":"25","num_nodes":"15","size_leaf_vector":"1"}},{"base_weights":[-1.1783292E-4,-7.463106E-2,3.0991898E0,-2.1662536E-1,1.4560525E0,-1.3546717E-1,5.2445316E0,9.8692365E-2,-1.9891302E-1,6.6464084E-1,-1.1892449E0,-9.0768164E-1,1.837119E0,1.7474682E0,-2.3764732E-1],"categories":[],"categories_nodes":[],"categories_segments":[],"categories_sizes":[],"default_left":[0,0,0,0,0,0,0,0,0,0,0,0,0,0,0],"id":45,"left_children":[1,3,5,7,9,11,13,-1,-1,-1,-1,-1,-1,-1,-1],"loss_changes":[1.0928515E4,1.0044199E4,7.7104346E3,1.1796906E4,2.0299164E4,9.190535E3,3.9686543E3,0E0,0E0,0E0,0E0,0E0,0E0,0E0,0E0],"parents":[2147483647,0,0,1,1,2,2,3,3,4,4,5,5,6,6],"right_children":[2,4,6,8,10,12,14,-1,-1,-1,-1,-1,-1,-1,-1],"split_conditions":[6.553751E1,2.2E1,1.0786445E0,1E1,3.228E1,2.019E3,2.8E1,9.8692365E-2,-1.9891302E-1,6.6464084E-1,-1.1892449E0,-9.0768164E-1,1.837119E0,1.7474682E0,-2.3764732E-1],"split_indices":[4,17,5,17,7,24,18,0,0,0,0,0,0,0,0],"split_type":[0,0,0,0,0,0,0,0,0,0,0,0,0,0,0],"sum_hessian":[4.732E4,4.621E4,1.11E3,4.2288E4,3.922E3,4.43E2,6.67E2,1.9615E4,2.2673E4,3.382E3,5.4E2,3.03E2,1.4E2,5.75E2,9.2E1],"tree_param":{"num_deleted":"0","num_feature":"25","num_nodes":"15","size_leaf_vector":"1"}},{"base_weights":[-4.678212E-5,5.57604E-1,-4.1351363E-1,-1.4028211E0,9.423697E-1,-1.6990763E-1,-2.6053674E0,-1.0937134E0,5.6241434E-2,1.3201237E-1,1.040055E0,-2.1438196E-1,2.1952392E-1,9.456436E-1,-8.97215E-1],"categories":[],"categories_nodes":[],"categories_segments":[],"categories_sizes":[],"default_left":[0,0,0,0,0,0,0,0,0,0,0,0,0,0,0],"id":46,"left_children":[1,3,5,7,9,11,13,-1,-1,-1,-1,-1,-1,-1,-1],"loss_changes":[1.0911039E4,1.5199045E4,1.450908E4,1.3193131E4,2.195789E4,1.3795266E4,9.545939E3,0E0,0E0,0E0,0E0,0E0,0E0,0E0,0E0],"parents":[2147483647,0,0,1,1,2,2,3,3,4,4,5,5,6,6],"right_children":[2,4,6,8,10,12,14,-1,-1,-1,-1,-1,-1,-1,-1],"split_conditions":[6.925E1,7.538288E-1,1.65584E2,1.9E1,2.021E3,2.5952E1,6.6E1,-1.0937134E0,5.6241434E-2,1.3201237E-1,1.040055E0,-2.1438196E-1,2.1952392E-1,9.456436E-1,-8.97215E-1],"split_indices":[8,5,10,21,24,15,20,0,0,0,0,0,0,0,0],"split_type":[0,0,0,0,0,0,0,0,0,0,0,0,0,0,0],"sum_hessian":[4.732E4,2.0147E4,2.7173E4,3.305E3,1.6842E4,2.4456E4,2.717E3,1.294E3,2.011E3,1.438E4,2.462E3,1.5064E4,9.392E3,2.43E2,2.474E3],"tree_param":{"num_deleted":"0","num_feature":"25","num_nodes":"15","size_leaf_vector":"1"}},{"base_weights":[-2.9680914E-5,3.6666024E-1,-6.1056E-1,-2.090869E-1,1.3543016E0,-1.9547404E0,1.6482681E-1,1.0343041E-1,-4.3028575E-1,1.1718458E-1,7.061146E-1,1.3609861E0,-6.718497E-1,-2.9066002E-1,6.812524E-1],"categories":[],"categories_nodes":[],"categories_segments":[],"categories_sizes":[],"default_left":[0,0,0,0,0,0,0,0,0,0,0,0,0,0,0],"id":47,"left_children":[1,3,5,7,9,11,13,-1,-1,-1,-1,-1,-1,-1,-1],"loss_changes":[1.0594228E4,1.6811877E4,1.8507729E4,1.4254077E4,1.1822129E4,1.9273688E4,3.0518842E4,0E0,0E0,0E0,0E0,0E0,0E0,0E0,0E0],"parents":[2147483647,0,0,1,1,2,2,3,3,4,4,5,5,6,6],"right_children":[2,4,6,8,10,12,14,-1,-1,-1,-1,-1,-1,-1,-1],"split_conditions":[1.1396E1,9.694688E0,1.1329895E0,2.49E2,1.8E1,1.8E1,4.1E1,1.0343041E-1,-4.3028575E-1,1.1718458E-1,7.061146E-1,1.3609861E0,-6.718497E-1,-2.9066002E-1,6.812524E-1],"split_indices":[1,1,5,20,18,20,21,0,0,0,0,0,0,0,0],"split_type":[0,0,0,0,0,0,0,0,0,0,0,0,0,0,0],"sum_hessian":[4.732E4,2.9564E4,1.7756E4,1.8677E4,1.0887E4,6.495E3,1.1261E4,1.3002E4,5.675E3,6.019E3,4.868E3,3.91E2,6.104E3,7.357E3,3.904E3],"tree_param":{"num_deleted":"0","num_feature":"25","num_nodes":"15","size_leaf_vector":"1"}},{"base_weights":[1.1154892E-5,1.2996122E-1,-1.5016379E0,-1.7635684E-1,1.2670324E0,-6.6503584E-1,-6.12862E0,4.513647E-1,-1.1518936E-1,1.02539875E-1,1.0974287E0,2.5384352E0,-2.4165234E-1,-2.6214135E0,2.754885E0],"categories":[],"categories_nodes":[],"categories_segments":[],"categories_sizes":[],"default_left":[0,0,0,0,0,0,0,0,0,0,0,0,0,0,0],"id":48,"left_children":[1,3,5,7,9,11,13,-1,-1,-1,-1,-1,-1,-1,-1],"loss_changes":[9.234386E3,1.516997E4,1.4585508E4,1.4286731E4,2.1998438E4,6.044512E3,2.9511525E4,0E0,0E0,0E0,0E0,0E0,0E0,0E0,0E0],"parents":[2147483647,0,0,1,1,2,2,3,3,4,4,5,5,6,6],"right_children":[2,4,6,8,10,12,14,-1,-1,-1,-1,-1,-1,-1,-1],"split_conditions":[2.9E1,2.3E1,7.929046E2,1.544838E-3,4E1,3.4E-1,3.35E2,4.513647E-1,-1.1518936E-1,1.02539875E-1,1.0974287E0,2.5384352E0,-2.4165234E-1,-2.6214135E0,2.754885E0],"split_indices":[18,18,11,12,21,3,20,0,0,0,0,0,0,0,0],"split_type":[0,0,0,0,0,0,0,0,0,0,0,0,0,0,0],"sum_hessian":[4.732E4,4.3552E4,3.768E3,3.431E4,9.242E3,3.192E3,5.76E2,3.974E3,3.0336E4,6.888E3,2.354E3,6.2E1,3.13E3,4.8E2,9.6E1],"tree_param":{"num_deleted":"0","num_feature":"25","num_nodes":"15","size_leaf_vector":"1"}},{"base_weights":[9.164496E-5,4.3977827E-1,-4.2641592E-1,3.9277375E0,9.825835E-2,-1.5768119E0,4.516477E-2,3.2486275E-1,3.0813992E0,-1.8131664E0,1.2101499E-1,-1.4261632E0,-2.9723826E-1,3.7365004E-1,-2.7526206E-1],"categories":[],"categories_nodes":[],"categories_segments":[],"categories_sizes":[],"default_left":[0,0,0,0,0,0,0,0,0,0,0,0,0,0,0],"id":49,"left_children":[1,3,5,7,9,11,13,-1,-1,-1,-1,-1,-1,-1,-1],"loss_changes":[8.874279E3,2.7755941E4,1.3031572E4,4.0523043E4,4.6217793E4,1.2676236E4,2.2429053E4,0E0,0E0,0E0,0E0,0E0,0E0,0E0,0E0],"parents":[2147483647,0,0,1,1,2,2,3,3,4,4,5,5,6,6],"right_children":[2,4,6,8,10,12,14,-1,-1,-1,-1,-1,-1,-1,-1],"split_conditions":[7.6121967E2,1.5E1,2E0,2.021E3,1.15E2,-8.8093065E-2,1.2392622E-1,3.2486275E-1,3.0813992E0,-1.8131664E0,1.2101499E-1,-1.4261632E0,-2.9723826E-1,3.7365004E-1,-2.7526206E-1],"split_indices":[11,21,19,24,20,12,12,0,0,0,0,0,0,0,0],"split_type":[0,0,0,0,0,0,0,0,0,0,0,0,0,0,0],"sum_hessian":[4.732E4,2.33E4,2.402E4,2.077E3,2.1223E4,6.983E3,1.7037E4,1.491E3,5.86E2,1.024E3,2.0199E4,9.01E2,6.082E3,7.56E3,9.477E3],"tree_param":{"num_deleted":"0","num_feature":"25","num_nodes":"15","size_leaf_vector":"1"}}]},"name":"gbtree"},"learner_model_param":{"base_score":"7.065789E1","boost_from_average":"1","num_class":"0","num_feature":"25","num_target":"1"},"objective":{"name":"reg:squarederror","reg_loss_param":{"scale_pos_weight":"1"}}},"version":[2,1,0]}